<?xml version="1.0"?>
<opencv_storage>
<cascade>
  <stageType>BOOST</stageType>
  <featureType>HAAR</featureType>
  <height>32</height>
  <width>32</width>
  <stageParams>
    <boostType>GAB</boostType>
    <minHitRate>9.9500000476837158e-01</minHitRate>
    <maxFalseAlarm>5.0000000000000000e-01</maxFalseAlarm>
    <weightTrimRate>9.4999998807907104e-01</weightTrimRate>
    <maxDepth>1</maxDepth>
    <maxWeakCount>100</maxWeakCount></stageParams>
  <featureParams>
    <maxCatCount>0</maxCatCount>
    <featSize>1</featSize>
    <mode>BASIC</mode></featureParams>
  <stageNum>12</stageNum>
  <stages>
    <!-- stage 0 -->
    <_>
      <maxWeakCount>4</maxWeakCount>
      <stageThreshold>-2.5886421203613281e+00</stageThreshold>
      <weakClassifiers>
        <_>
          <internalNodes>
            0 -1 46 -1.8860623240470886e-01</internalNodes>
          <leafValues>
            3.6585366725921631e-01 -9.7161716222763062e-01</leafValues></_>
        <_>
          <internalNodes>
            0 -1 25 7.2405017912387848e-02</internalNodes>
          <leafValues>
            -9.1979670524597168e-01 3.5150817036628723e-01</leafValues></_>
        <_>
          <internalNodes>
            0 -1 27 1.6059655696153641e-02</internalNodes>
          <leafValues>
            -8.7725919485092163e-01 2.6913371682167053e-01</leafValues></_>
        <_>
          <internalNodes>
            0 -1 33 -9.3843169452156872e-05</internalNodes>
          <leafValues>
            -1. 1.8003088235855103e-01</leafValues></_></weakClassifiers></_>
    <!-- stage 1 -->
    <_>
      <maxWeakCount>4</maxWeakCount>
      <stageThreshold>-2.5105824470520020e+00</stageThreshold>
      <weakClassifiers>
        <_>
          <internalNodes>
            0 -1 12 -3.2406508922576904e-01</internalNodes>
          <leafValues>
            6.1904764175415039e-01 -9.6459019184112549e-01</leafValues></_>
        <_>
          <internalNodes>
            0 -1 23 1.8470065668225288e-02</internalNodes>
          <leafValues>
            -9.3948274850845337e-01 7.6314896345138550e-02</leafValues></_>
        <_>
          <internalNodes>
            0 -1 26 -1.1650522053241730e-01</internalNodes>
          <leafValues>
            4.4068667292594910e-01 -8.2694381475448608e-01</leafValues></_>
        <_>
          <internalNodes>
            0 -1 21 3.6662269849330187e-04</internalNodes>
          <leafValues>
            2.2043436765670776e-01 -8.6955201625823975e-01</leafValues></_></weakClassifiers></_>
    <!-- stage 2 -->
    <_>
      <maxWeakCount>4</maxWeakCount>
      <stageThreshold>-2.2406029701232910e+00</stageThreshold>
      <weakClassifiers>
        <_>
          <internalNodes>
            0 -1 6 -3.2032081484794617e-01</internalNodes>
          <leafValues>
            2.4137930572032928e-01 -9.6515452861785889e-01</leafValues></_>
        <_>
          <internalNodes>
            0 -1 57 2.9270257800817490e-02</internalNodes>
          <leafValues>
            -9.2076927423477173e-01 1.2937562167644501e-01</leafValues></_>
        <_>
          <internalNodes>
            0 -1 5 -5.7495184242725372e-02</internalNodes>
          <leafValues>
            4.6524474024772644e-01 -7.1436470746994019e-01</leafValues></_>
        <_>
          <internalNodes>
            0 -1 43 -5.1809372380375862e-03</internalNodes>
          <leafValues>
            4.2961707711219788e-01 -6.9045931100845337e-01</leafValues></_></weakClassifiers></_>
    <!-- stage 3 -->
    <_>
      <maxWeakCount>5</maxWeakCount>
      <stageThreshold>-2.5096814632415771e+00</stageThreshold>
      <weakClassifiers>
        <_>
          <internalNodes>
            0 -1 47 1.5478423237800598e-01</internalNodes>
          <leafValues>
            -9.6931284666061401e-01 -3.1506848335266113e-01</leafValues></_>
        <_>
          <internalNodes>
            0 -1 20 -1.8361347913742065e-01</internalNodes>
          <leafValues>
            -2.0666891336441040e-01 -9.2175775766372681e-01</leafValues></_>
        <_>
          <internalNodes>
            0 -1 18 5.7070784270763397e-02</internalNodes>
          <leafValues>
            -8.0646747350692749e-01 1.1445971578359604e-01</leafValues></_>
        <_>
          <internalNodes>
            0 -1 44 -1.7200811271322891e-05</internalNodes>
          <leafValues>
            -9.6635144948959351e-01 2.0143532752990723e-01</leafValues></_>
        <_>
          <internalNodes>
            0 -1 39 -7.1309652412310243e-05</internalNodes>
          <leafValues>
            -9.3450599908828735e-01 3.0761021375656128e-01</leafValues></_></weakClassifiers></_>
    <!-- stage 4 -->
    <_>
      <maxWeakCount>5</maxWeakCount>
      <stageThreshold>-2.5219943523406982e+00</stageThreshold>
      <weakClassifiers>
        <_>
          <internalNodes>
            0 -1 45 -1.3116818666458130e-01</internalNodes>
          <leafValues>
            7.7777779102325439e-01 -9.5885044336318970e-01</leafValues></_>
        <_>
          <internalNodes>
            0 -1 28 -1.3894328474998474e-01</internalNodes>
          <leafValues>
            -1.3777455687522888e-01 -9.2802095413208008e-01</leafValues></_>
        <_>
          <internalNodes>
            0 -1 38 -4.6186577528715134e-03</internalNodes>
          <leafValues>
            3.9178870618343353e-02 -8.8455539941787720e-01</leafValues></_>
        <_>
          <internalNodes>
            0 -1 10 1.5720830560894683e-05</internalNodes>
          <leafValues>
            2.0343671739101410e-01 -9.0402454137802124e-01</leafValues></_>
        <_>
          <internalNodes>
            0 -1 37 5.2450093789957464e-05</internalNodes>
          <leafValues>
            2.2972270846366882e-01 -1.</leafValues></_></weakClassifiers></_>
    <!-- stage 5 -->
    <_>
      <maxWeakCount>6</maxWeakCount>
      <stageThreshold>-2.9212870597839355e+00</stageThreshold>
      <weakClassifiers>
        <_>
          <internalNodes>
            0 -1 48 1.4491268992424011e-01</internalNodes>
          <leafValues>
            -9.7359275817871094e-01 -6.5803110599517822e-01</leafValues></_>
        <_>
          <internalNodes>
            0 -1 19 -1.7676684260368347e-01</internalNodes>
          <leafValues>
            -2.9175958037376404e-01 -9.1265136003494263e-01</leafValues></_>
        <_>
          <internalNodes>
            0 -1 34 -1.5298392099794000e-05</internalNodes>
          <leafValues>
            -8.1787538528442383e-01 1.3417443633079529e-01</leafValues></_>
        <_>
          <internalNodes>
            0 -1 29 4.5347362174652517e-05</internalNodes>
          <leafValues>
            1.5498070418834686e-01 -9.2975610494613647e-01</leafValues></_>
        <_>
          <internalNodes>
            0 -1 56 1.0325983166694641e-02</internalNodes>
          <leafValues>
            -5.6480634212493896e-01 4.2941021919250488e-01</leafValues></_>
        <_>
          <internalNodes>
            0 -1 58 -1.5961686585796997e-05</internalNodes>
          <leafValues>
            -1. 1.9265815615653992e-01</leafValues></_></weakClassifiers></_>
    <!-- stage 6 -->
    <_>
      <maxWeakCount>6</maxWeakCount>
      <stageThreshold>-2.8271899223327637e+00</stageThreshold>
      <weakClassifiers>
        <_>
          <internalNodes>
            0 -1 51 -1.8713247776031494e-01</internalNodes>
          <leafValues>
            7.1428573131561279e-01 -9.5757180452346802e-01</leafValues></_>
        <_>
          <internalNodes>
            0 -1 49 1.4502954483032227e-01</internalNodes>
          <leafValues>
            -8.4044796228408813e-01 2.8898483142256737e-03</leafValues></_>
        <_>
          <internalNodes>
            0 -1 1 -4.5337998017203063e-05</internalNodes>
          <leafValues>
            -8.1536841392517090e-01 8.6681813001632690e-02</leafValues></_>
        <_>
          <internalNodes>
            0 -1 14 8.0153904491453432e-06</internalNodes>
          <leafValues>
            1.7754340171813965e-01 -9.4437962770462036e-01</leafValues></_>
        <_>
          <internalNodes>
            0 -1 17 -6.5965933026745915e-04</internalNodes>
          <leafValues>
            4.4984999299049377e-01 -4.8963677883148193e-01</leafValues></_>
        <_>
          <internalNodes>
            0 -1 41 1.3441368355415761e-04</internalNodes>
          <leafValues>
            2.3130042850971222e-01 -8.4119510650634766e-01</leafValues></_></weakClassifiers></_>
    <!-- stage 7 -->
    <_>
      <maxWeakCount>7</maxWeakCount>
      <stageThreshold>-2.6047766208648682e+00</stageThreshold>
      <weakClassifiers>
        <_>
          <internalNodes>
            0 -1 16 -4.3254226446151733e-01</internalNodes>
          <leafValues>
            1. -9.5630908012390137e-01</leafValues></_>
        <_>
          <internalNodes>
            0 -1 14 -5.6376622524112463e-05</internalNodes>
          <leafValues>
            -9.1728013753890991e-01 -2.9448381066322327e-01</leafValues></_>
        <_>
          <internalNodes>
            0 -1 53 1.6259673982858658e-02</internalNodes>
          <leafValues>
            -6.7456579208374023e-01 2.3843875527381897e-01</leafValues></_>
        <_>
          <internalNodes>
            0 -1 24 6.2728270888328552e-02</internalNodes>
          <leafValues>
            -7.0280170440673828e-01 2.7459210157394409e-01</leafValues></_>
        <_>
          <internalNodes>
            0 -1 9 5.0600530812516809e-05</internalNodes>
          <leafValues>
            2.4409484863281250e-01 -8.2220321893692017e-01</leafValues></_>
        <_>
          <internalNodes>
            0 -1 0 5.9988520661136135e-05</internalNodes>
          <leafValues>
            2.2971691191196442e-01 -8.6497765779495239e-01</leafValues></_>
        <_>
          <internalNodes>
            0 -1 30 -2.0815912284888327e-04</internalNodes>
          <leafValues>
            3.2566189765930176e-01 -6.5113580226898193e-01</leafValues></_></weakClassifiers></_>
    <!-- stage 8 -->
    <_>
      <maxWeakCount>6</maxWeakCount>
      <stageThreshold>-2.4657931327819824e+00</stageThreshold>
      <weakClassifiers>
        <_>
          <internalNodes>
            0 -1 40 -2.9441155493259430e-02</internalNodes>
          <leafValues>
            6.0000002384185791e-01 -9.5629483461380005e-01</leafValues></_>
        <_>
          <internalNodes>
            0 -1 2 -2.7803089469671249e-02</internalNodes>
          <leafValues>
            -2.9065370559692383e-01 -8.6937892436981201e-01</leafValues></_>
        <_>
          <internalNodes>
            0 -1 54 -4.7771935351192951e-04</internalNodes>
          <leafValues>
            7.3097877204418182e-02 -7.6238220930099487e-01</leafValues></_>
        <_>
          <internalNodes>
            0 -1 59 3.5745681088883430e-05</internalNodes>
          <leafValues>
            2.0258171856403351e-01 -8.4884232282638550e-01</leafValues></_>
        <_>
          <internalNodes>
            0 -1 59 -1.6894022337510251e-05</internalNodes>
          <leafValues>
            -8.4765267372131348e-01 3.1786334514617920e-01</leafValues></_>
        <_>
          <internalNodes>
            0 -1 11 -1.9457619637250900e-02</internalNodes>
          <leafValues>
            1.8860851228237152e-01 -8.2326769828796387e-01</leafValues></_></weakClassifiers></_>
    <!-- stage 9 -->
    <_>
      <maxWeakCount>6</maxWeakCount>
      <stageThreshold>-2.1179394721984863e+00</stageThreshold>
      <weakClassifiers>
        <_>
          <internalNodes>
            0 -1 7 -3.4991124272346497e-01</internalNodes>
          <leafValues>
            -4.8571428656578064e-01 -9.6467846632003784e-01</leafValues></_>
        <_>
          <internalNodes>
            0 -1 4 -3.0330464243888855e-02</internalNodes>
          <leafValues>
            1.0686955600976944e-01 -8.0444675683975220e-01</leafValues></_>
        <_>
          <internalNodes>
            0 -1 60 -2.0075945940334350e-05</internalNodes>
          <leafValues>
            -9.0778690576553345e-01 4.4643819332122803e-02</leafValues></_>
        <_>
          <internalNodes>
            0 -1 15 -5.4896645451663062e-05</internalNodes>
          <leafValues>
            -8.4576439857482910e-01 1.6578193008899689e-01</leafValues></_>
        <_>
          <internalNodes>
            0 -1 3 1.9486364908516407e-04</internalNodes>
          <leafValues>
            1.9560888409614563e-01 -8.4625232219696045e-01</leafValues></_>
        <_>
          <internalNodes>
            0 -1 22 -8.1699154179659672e-06</internalNodes>
          <leafValues>
            2.8701218962669373e-01 -5.9203851222991943e-01</leafValues></_></weakClassifiers></_>
    <!-- stage 10 -->
    <_>
      <maxWeakCount>6</maxWeakCount>
      <stageThreshold>-2.3588321208953857e+00</stageThreshold>
      <weakClassifiers>
        <_>
          <internalNodes>
            0 -1 13 -3.3283695578575134e-01</internalNodes>
          <leafValues>
            -3.3333334326744080e-01 -9.6112024784088135e-01</leafValues></_>
        <_>
          <internalNodes>
            0 -1 42 -3.1526929140090942e-01</internalNodes>
          <leafValues>
            -1.4903022348880768e-01 -8.1197839975357056e-01</leafValues></_>
        <_>
          <internalNodes>
            0 -1 32 -2.8601342812180519e-02</internalNodes>
          <leafValues>
            3.5375297069549561e-01 -5.2228552103042603e-01</leafValues></_>
        <_>
          <internalNodes>
            0 -1 60 5.5046148190740496e-06</internalNodes>
          <leafValues>
            2.1073509752750397e-01 -8.5770922899246216e-01</leafValues></_>
        <_>
          <internalNodes>
            0 -1 36 -9.0270637883804739e-05</internalNodes>
          <leafValues>
            4.0520009398460388e-01 -4.3463933467864990e-01</leafValues></_>
        <_>
          <internalNodes>
            0 -1 52 -9.4468082534149289e-04</internalNodes>
          <leafValues>
            3.6451676487922668e-01 -4.8697739839553833e-01</leafValues></_></weakClassifiers></_>
    <!-- stage 11 -->
    <_>
      <maxWeakCount>6</maxWeakCount>
      <stageThreshold>-2.1443271636962891e+00</stageThreshold>
      <weakClassifiers>
        <_>
          <internalNodes>
            0 -1 7 -3.5570526123046875e-01</internalNodes>
          <leafValues>
            -5.6410259008407593e-01 -9.6391582489013672e-01</leafValues></_>
        <_>
          <internalNodes>
            0 -1 8 1.3253834098577499e-02</internalNodes>
          <leafValues>
            -8.2319575548171997e-01 -2.4788750708103180e-01</leafValues></_>
        <_>
          <internalNodes>
            0 -1 31 1.3828900456428528e-01</internalNodes>
          <leafValues>
            -5.6764429807662964e-01 2.6544851064682007e-01</leafValues></_>
        <_>
          <internalNodes>
            0 -1 35 2.5429553352296352e-04</internalNodes>
          <leafValues>
            -3.7901306152343750e-01 4.4824936985969543e-01</leafValues></_>
        <_>
          <internalNodes>
            0 -1 50 1.2568059901241213e-05</internalNodes>
          <leafValues>
            -4.0458270907402039e-01 4.1488370299339294e-01</leafValues></_>
        <_>
          <internalNodes>
            0 -1 55 -1.7808430129662156e-05</internalNodes>
          <leafValues>
            -1. 1.7455802857875824e-01</leafValues></_></weakClassifiers></_></stages>
  <features>
    <_>
      <rects>
        <_>
          0 0 1 30 -1.</_>
        <_>
          0 15 1 15 2.</_></rects>
      <tilted>0</tilted></_>
    <_>
      <rects>
        <_>
          0 0 10 1 -1.</_>
        <_>
          5 0 5 1 2.</_></rects>
      <tilted>0</tilted></_>
    <_>
      <rects>
        <_>
          0 0 10 24 -1.</_>
        <_>
          0 0 5 12 2.</_>
        <_>
          5 12 5 12 2.</_></rects>
      <tilted>0</tilted></_>
    <_>
      <rects>
        <_>
          0 1 1 12 -1.</_>
        <_>
          0 5 1 4 3.</_></rects>
      <tilted>0</tilted></_>
    <_>
      <rects>
        <_>
          0 12 9 10 -1.</_>
        <_>
          3 12 3 10 3.</_></rects>
      <tilted>0</tilted></_>
    <_>
      <rects>
        <_>
          0 13 12 13 -1.</_>
        <_>
          6 13 6 13 2.</_></rects>
      <tilted>0</tilted></_>
    <_>
      <rects>
        <_>
          0 14 30 10 -1.</_>
        <_>
          10 14 10 10 3.</_></rects>
      <tilted>0</tilted></_>
    <_>
      <rects>
        <_>
          0 14 30 11 -1.</_>
        <_>
          10 14 10 11 3.</_></rects>
      <tilted>0</tilted></_>
    <_>
      <rects>
        <_>
          0 20 8 8 -1.</_>
        <_>
          0 20 4 4 2.</_>
        <_>
          4 24 4 4 2.</_></rects>
      <tilted>0</tilted></_>
    <_>
      <rects>
        <_>
          0 30 6 2 -1.</_>
        <_>
          0 31 6 1 2.</_></rects>
      <tilted>0</tilted></_>
    <_>
      <rects>
        <_>
          1 0 8 1 -1.</_>
        <_>
          5 0 4 1 2.</_></rects>
      <tilted>0</tilted></_>
    <_>
      <rects>
        <_>
          1 0 21 10 -1.</_>
        <_>
          1 5 21 5 2.</_></rects>
      <tilted>0</tilted></_>
    <_>
      <rects>
        <_>
          1 15 30 10 -1.</_>
        <_>
          11 15 10 10 3.</_></rects>
      <tilted>0</tilted></_>
    <_>
      <rects>
        <_>
          1 18 30 9 -1.</_>
        <_>
          11 18 10 9 3.</_></rects>
      <tilted>0</tilted></_>
    <_>
      <rects>
        <_>
          1 31 24 1 -1.</_>
        <_>
          9 31 8 1 3.</_></rects>
      <tilted>0</tilted></_>
    <_>
      <rects>
        <_>
          2 1 8 2 -1.</_>
        <_>
          2 2 8 1 2.</_></rects>
      <tilted>0</tilted></_>
    <_>
      <rects>
        <_>
          2 12 30 10 -1.</_>
        <_>
          12 12 10 10 3.</_></rects>
      <tilted>0</tilted></_>
    <_>
      <rects>
        <_>
          4 2 2 12 -1.</_>
        <_>
          5 2 1 12 2.</_></rects>
      <tilted>0</tilted></_>
    <_>
      <rects>
        <_>
          4 22 19 10 -1.</_>
        <_>
          4 27 19 5 2.</_></rects>
      <tilted>0</tilted></_>
    <_>
      <rects>
        <_>
          5 0 20 16 -1.</_>
        <_>
          5 8 20 8 2.</_></rects>
      <tilted>0</tilted></_>
    <_>
      <rects>
        <_>
          5 0 21 16 -1.</_>
        <_>
          5 8 21 8 2.</_></rects>
      <tilted>0</tilted></_>
    <_>
      <rects>
        <_>
          5 28 20 2 -1.</_>
        <_>
          15 28 10 2 2.</_></rects>
      <tilted>0</tilted></_>
    <_>
      <rects>
        <_>
          6 23 2 5 -1.</_>
        <_>
          7 23 1 5 2.</_></rects>
      <tilted>0</tilted></_>
    <_>
      <rects>
        <_>
          7 20 3 12 -1.</_>
        <_>
          7 26 3 6 2.</_></rects>
      <tilted>0</tilted></_>
    <_>
      <rects>
        <_>
          7 22 19 10 -1.</_>
        <_>
          7 27 19 5 2.</_></rects>
      <tilted>0</tilted></_>
    <_>
      <rects>
        <_>
          7 24 18 8 -1.</_>
        <_>
          7 28 18 4 2.</_></rects>
      <tilted>0</tilted></_>
    <_>
      <rects>
        <_>
          8 0 17 14 -1.</_>
        <_>
          8 7 17 7 2.</_></rects>
      <tilted>0</tilted></_>
    <_>
      <rects>
        <_>
          8 20 4 12 -1.</_>
        <_>
          8 26 4 6 2.</_></rects>
      <tilted>0</tilted></_>
    <_>
      <rects>
        <_>
          9 0 16 16 -1.</_>
        <_>
          9 8 16 8 2.</_></rects>
      <tilted>0</tilted></_>
    <_>
      <rects>
        <_>
          9 29 9 2 -1.</_>
        <_>
          12 29 3 2 3.</_></rects>
      <tilted>0</tilted></_>
    <_>
      <rects>
        <_>
          10 17 2 14 -1.</_>
        <_>
          11 17 1 14 2.</_></rects>
      <tilted>0</tilted></_>
    <_>
      <rects>
        <_>
          10 18 14 14 -1.</_>
        <_>
          10 25 14 7 2.</_></rects>
      <tilted>0</tilted></_>
    <_>
      <rects>
        <_>
          10 20 7 12 -1.</_>
        <_>
          10 24 7 4 3.</_></rects>
      <tilted>0</tilted></_>
    <_>
      <rects>
        <_>
          10 29 22 1 -1.</_>
        <_>
          21 29 11 1 2.</_></rects>
      <tilted>0</tilted></_>
    <_>
      <rects>
        <_>
          11 31 10 1 -1.</_>
        <_>
          16 31 5 1 2.</_></rects>
      <tilted>0</tilted></_>
    <_>
      <rects>
        <_>
          12 8 3 3 -1.</_>
        <_>
          13 8 1 3 3.</_></rects>
      <tilted>0</tilted></_>
    <_>
      <rects>
        <_>
          12 11 2 2 -1.</_>
        <_>
          13 11 1 2 2.</_></rects>
      <tilted>0</tilted></_>
    <_>
      <rects>
        <_>
          13 31 6 1 -1.</_>
        <_>
          16 31 3 1 2.</_></rects>
      <tilted>0</tilted></_>
    <_>
      <rects>
        <_>
          14 0 2 12 -1.</_>
        <_>
          14 6 2 6 2.</_></rects>
      <tilted>0</tilted></_>
    <_>
      <rects>
        <_>
          14 0 12 1 -1.</_>
        <_>
          18 0 4 1 3.</_></rects>
      <tilted>0</tilted></_>
    <_>
      <rects>
        <_>
          14 17 8 3 -1.</_>
        <_>
          18 17 4 3 2.</_></rects>
      <tilted>0</tilted></_>
    <_>
      <rects>
        <_>
          15 0 12 1 -1.</_>
        <_>
          19 0 4 1 3.</_></rects>
      <tilted>0</tilted></_>
    <_>
      <rects>
        <_>
          15 2 10 30 -1.</_>
        <_>
          15 12 10 10 3.</_></rects>
      <tilted>0</tilted></_>
    <_>
      <rects>
        <_>
          17 10 1 21 -1.</_>
        <_>
          17 17 1 7 3.</_></rects>
      <tilted>0</tilted></_>
    <_>
      <rects>
        <_>
          18 0 14 1 -1.</_>
        <_>
          25 0 7 1 2.</_></rects>
      <tilted>0</tilted></_>
    <_>
      <rects>
        <_>
          18 1 3 30 -1.</_>
        <_>
          18 11 3 10 3.</_></rects>
      <tilted>0</tilted></_>
    <_>
      <rects>
        <_>
          18 2 6 30 -1.</_>
        <_>
          18 12 6 10 3.</_></rects>
      <tilted>0</tilted></_>
    <_>
      <rects>
        <_>
          18 9 14 13 -1.</_>
        <_>
          25 9 7 13 2.</_></rects>
      <tilted>0</tilted></_>
    <_>
      <rects>
        <_>
          18 9 14 15 -1.</_>
        <_>
          25 9 7 15 2.</_></rects>
      <tilted>0</tilted></_>
    <_>
      <rects>
        <_>
          18 12 14 15 -1.</_>
        <_>
          25 12 7 15 2.</_></rects>
      <tilted>0</tilted></_>
    <_>
      <rects>
        <_>
          18 22 2 2 -1.</_>
        <_>
          18 22 1 1 2.</_>
        <_>
          19 23 1 1 2.</_></rects>
      <tilted>0</tilted></_>
    <_>
      <rects>
        <_>
          19 2 4 30 -1.</_>
        <_>
          19 12 4 10 3.</_></rects>
      <tilted>0</tilted></_>
    <_>
      <rects>
        <_>
          19 14 12 2 -1.</_>
        <_>
          23 14 4 2 3.</_></rects>
      <tilted>0</tilted></_>
    <_>
      <rects>
        <_>
          20 0 12 14 -1.</_>
        <_>
          20 0 6 7 2.</_>
        <_>
          26 7 6 7 2.</_></rects>
      <tilted>0</tilted></_>
    <_>
      <rects>
        <_>
          20 13 12 6 -1.</_>
        <_>
          20 15 12 2 3.</_></rects>
      <tilted>0</tilted></_>
    <_>
      <rects>
        <_>
          20 30 12 1 -1.</_>
        <_>
          26 30 6 1 2.</_></rects>
      <tilted>0</tilted></_>
    <_>
      <rects>
        <_>
          22 8 10 7 -1.</_>
        <_>
          27 8 5 7 2.</_></rects>
      <tilted>0</tilted></_>
    <_>
      <rects>
        <_>
          22 20 4 12 -1.</_>
        <_>
          22 26 4 6 2.</_></rects>
      <tilted>0</tilted></_>
    <_>
      <rects>
        <_>
          24 29 6 1 -1.</_>
        <_>
          26 29 2 1 3.</_></rects>
      <tilted>0</tilted></_>
    <_>
      <rects>
        <_>
          30 28 2 4 -1.</_>
        <_>
          30 30 2 2 2.</_></rects>
      <tilted>0</tilted></_>
    <_>
      <rects>
        <_>
          31 0 1 4 -1.</_>
        <_>
          31 2 1 2 2.</_></rects>
      <tilted>0</tilted></_></features></cascade>
</opencv_storage>
