<?xml version="1.0"?>
<opencv_storage>
<cascade>
  <stageType>BOOST</stageType>
  <featureType>HAAR</featureType>
  <height>32</height>
  <width>32</width>
  <stageParams>
    <boostType>GAB</boostType>
    <minHitRate>9.9500000476837158e-01</minHitRate>
    <maxFalseAlarm>5.0000000000000000e-01</maxFalseAlarm>
    <weightTrimRate>9.4999998807907104e-01</weightTrimRate>
    <maxDepth>1</maxDepth>
    <maxWeakCount>100</maxWeakCount></stageParams>
  <featureParams>
    <maxCatCount>0</maxCatCount>
    <featSize>1</featSize>
    <mode>BASIC</mode></featureParams>
  <stageNum>14</stageNum>
  <stages>
    <!-- stage 0 -->
    <_>
      <maxWeakCount>3</maxWeakCount>
      <stageThreshold>-1.3179775476455688e+00</stageThreshold>
      <weakClassifiers>
        <_>
          <internalNodes>
            0 -1 47 1.0232555866241455e-01</internalNodes>
          <leafValues>
            -8.8367348909378052e-01 3.7903225421905518e-01</leafValues></_>
        <_>
          <internalNodes>
            0 -1 6 -5.0752945244312286e-02</internalNodes>
          <leafValues>
            5.0873863697052002e-01 -7.0824545621871948e-01</leafValues></_>
        <_>
          <internalNodes>
            0 -1 77 -1.2119412713218480e-04</internalNodes>
          <leafValues>
            -9.4304275512695313e-01 3.0597415566444397e-01</leafValues></_></weakClassifiers></_>
    <!-- stage 1 -->
    <_>
      <maxWeakCount>5</maxWeakCount>
      <stageThreshold>-1.6329578161239624e+00</stageThreshold>
      <weakClassifiers>
        <_>
          <internalNodes>
            0 -1 33 1.5054769814014435e-01</internalNodes>
          <leafValues>
            -8.7500000000000000e-01 5.0000000000000000e-01</leafValues></_>
        <_>
          <internalNodes>
            0 -1 66 6.6646143794059753e-02</internalNodes>
          <leafValues>
            -7.0158994197845459e-01 5.6971627473831177e-01</leafValues></_>
        <_>
          <internalNodes>
            0 -1 62 -3.4379729186184704e-05</internalNodes>
          <leafValues>
            -9.1448539495468140e-01 3.0081236362457275e-01</leafValues></_>
        <_>
          <internalNodes>
            0 -1 37 2.5444567203521729e-02</internalNodes>
          <leafValues>
            -6.1746591329574585e-01 4.9803090095520020e-01</leafValues></_>
        <_>
          <internalNodes>
            0 -1 64 4.5098226109985262e-05</internalNodes>
          <leafValues>
            3.6008656024932861e-01 -9.0531122684478760e-01</leafValues></_></weakClassifiers></_>
    <!-- stage 2 -->
    <_>
      <maxWeakCount>5</maxWeakCount>
      <stageThreshold>-2.0660934448242188e+00</stageThreshold>
      <weakClassifiers>
        <_>
          <internalNodes>
            0 -1 42 -1.1084358394145966e-01</internalNodes>
          <leafValues>
            1.3857677578926086e-01 -8.4183144569396973e-01</leafValues></_>
        <_>
          <internalNodes>
            0 -1 50 -2.2937765606911853e-05</internalNodes>
          <leafValues>
            -9.1053569316864014e-01 1.0259249061346054e-01</leafValues></_>
        <_>
          <internalNodes>
            0 -1 49 3.1453142582904547e-05</internalNodes>
          <leafValues>
            2.9029119014739990e-01 -8.1776458024978638e-01</leafValues></_>
        <_>
          <internalNodes>
            0 -1 16 1.0254681910737418e-05</internalNodes>
          <leafValues>
            2.6047351956367493e-01 -8.4338057041168213e-01</leafValues></_>
        <_>
          <internalNodes>
            0 -1 12 1.8338836525799707e-05</internalNodes>
          <leafValues>
            2.3936317861080170e-01 -9.0858888626098633e-01</leafValues></_></weakClassifiers></_>
    <!-- stage 3 -->
    <_>
      <maxWeakCount>5</maxWeakCount>
      <stageThreshold>-1.6651641130447388e+00</stageThreshold>
      <weakClassifiers>
        <_>
          <internalNodes>
            0 -1 28 -3.4391152858734131e-01</internalNodes>
          <leafValues>
            7.4324324727058411e-02 -8.5193133354187012e-01</leafValues></_>
        <_>
          <internalNodes>
            0 -1 12 -1.7192287486977875e-05</internalNodes>
          <leafValues>
            -8.0162048339843750e-01 2.2562810778617859e-01</leafValues></_>
        <_>
          <internalNodes>
            0 -1 9 -5.0215601921081543e-02</internalNodes>
          <leafValues>
            5.3444361686706543e-01 -5.0322532653808594e-01</leafValues></_>
        <_>
          <internalNodes>
            0 -1 54 -3.5271950066089630e-02</internalNodes>
          <leafValues>
            3.6206880211830139e-01 -7.2776442766189575e-01</leafValues></_>
        <_>
          <internalNodes>
            0 -1 39 -1.3215598301030695e-04</internalNodes>
          <leafValues>
            -9.0812480449676514e-01 2.9645606875419617e-01</leafValues></_></weakClassifiers></_>
    <!-- stage 4 -->
    <_>
      <maxWeakCount>5</maxWeakCount>
      <stageThreshold>-1.5123554468154907e+00</stageThreshold>
      <weakClassifiers>
        <_>
          <internalNodes>
            0 -1 24 6.4152203500270844e-02</internalNodes>
          <leafValues>
            -9.2439860105514526e-01 9.8591551184654236e-02</leafValues></_>
        <_>
          <internalNodes>
            0 -1 73 4.5002188533544540e-02</internalNodes>
          <leafValues>
            -6.6763424873352051e-01 4.5436733961105347e-01</leafValues></_>
        <_>
          <internalNodes>
            0 -1 21 -7.2989180684089661e-02</internalNodes>
          <leafValues>
            2.9432722926139832e-01 -7.3548066616058350e-01</leafValues></_>
        <_>
          <internalNodes>
            0 -1 14 -8.0933286881190725e-06</internalNodes>
          <leafValues>
            -7.5414496660232544e-01 3.4204852581024170e-01</leafValues></_>
        <_>
          <internalNodes>
            0 -1 48 -1.9285431131720543e-02</internalNodes>
          <leafValues>
            5.3949517011642456e-01 -4.2947274446487427e-01</leafValues></_></weakClassifiers></_>
    <!-- stage 5 -->
    <_>
      <maxWeakCount>6</maxWeakCount>
      <stageThreshold>-1.7098739147186279e+00</stageThreshold>
      <weakClassifiers>
        <_>
          <internalNodes>
            0 -1 41 1.7801555804908276e-04</internalNodes>
          <leafValues>
            -2.1011672914028168e-01 -9.2997199296951294e-01</leafValues></_>
        <_>
          <internalNodes>
            0 -1 20 7.5722484325524420e-05</internalNodes>
          <leafValues>
            4.6232633292675018e-02 -9.1285139322280884e-01</leafValues></_>
        <_>
          <internalNodes>
            0 -1 26 -1.2744293780997396e-04</internalNodes>
          <leafValues>
            -8.2283979654312134e-01 2.3719038069248199e-01</leafValues></_>
        <_>
          <internalNodes>
            0 -1 38 6.8841516971588135e-02</internalNodes>
          <leafValues>
            -5.4210859537124634e-01 4.2279008030891418e-01</leafValues></_>
        <_>
          <internalNodes>
            0 -1 83 -2.5503197684884071e-04</internalNodes>
          <leafValues>
            -7.0034050941467285e-01 3.9471396803855896e-01</leafValues></_>
        <_>
          <internalNodes>
            0 -1 71 -8.3600825746543705e-05</internalNodes>
          <leafValues>
            -9.3329513072967529e-01 1.7912414669990540e-01</leafValues></_></weakClassifiers></_>
    <!-- stage 6 -->
    <_>
      <maxWeakCount>4</maxWeakCount>
      <stageThreshold>-1.2342641353607178e+00</stageThreshold>
      <weakClassifiers>
        <_>
          <internalNodes>
            0 -1 29 -4.4746422767639160e-01</internalNodes>
          <leafValues>
            2.4299065768718719e-01 -8.1262326240539551e-01</leafValues></_>
        <_>
          <internalNodes>
            0 -1 79 9.2064414639025927e-04</internalNodes>
          <leafValues>
            2.5948166847229004e-01 -9.1268283128738403e-01</leafValues></_>
        <_>
          <internalNodes>
            0 -1 60 2.0968171884305775e-04</internalNodes>
          <leafValues>
            2.9767349362373352e-01 -7.4495357275009155e-01</leafValues></_>
        <_>
          <internalNodes>
            0 -1 1 1.0670243500499055e-04</internalNodes>
          <leafValues>
            1.9336852431297302e-01 -9.5738351345062256e-01</leafValues></_></weakClassifiers></_>
    <!-- stage 7 -->
    <_>
      <maxWeakCount>8</maxWeakCount>
      <stageThreshold>-1.5648021697998047e+00</stageThreshold>
      <weakClassifiers>
        <_>
          <internalNodes>
            0 -1 8 -4.5076340436935425e-02</internalNodes>
          <leafValues>
            3.6666667461395264e-01 -7.3646211624145508e-01</leafValues></_>
        <_>
          <internalNodes>
            0 -1 59 3.2032974064350128e-02</internalNodes>
          <leafValues>
            -6.0760974884033203e-01 3.1099560856819153e-01</leafValues></_>
        <_>
          <internalNodes>
            0 -1 23 2.4328532163053751e-05</internalNodes>
          <leafValues>
            1.9122767448425293e-01 -8.0051755905151367e-01</leafValues></_>
        <_>
          <internalNodes>
            0 -1 23 -7.1803674472903367e-06</internalNodes>
          <leafValues>
            -6.7760914564132690e-01 3.0580765008926392e-01</leafValues></_>
        <_>
          <internalNodes>
            0 -1 72 9.6008740365505219e-03</internalNodes>
          <leafValues>
            -4.9788239598274231e-01 3.8644433021545410e-01</leafValues></_>
        <_>
          <internalNodes>
            0 -1 34 4.7992893996706698e-06</internalNodes>
          <leafValues>
            2.5649589300155640e-01 -8.8142126798629761e-01</leafValues></_>
        <_>
          <internalNodes>
            0 -1 82 -6.6441507078707218e-04</internalNodes>
          <leafValues>
            -6.9668883085250854e-01 2.1600744128227234e-01</leafValues></_>
        <_>
          <internalNodes>
            0 -1 25 -8.7389405816793442e-03</internalNodes>
          <leafValues>
            3.2772821187973022e-01 -4.5981684327125549e-01</leafValues></_></weakClassifiers></_>
    <!-- stage 8 -->
    <_>
      <maxWeakCount>6</maxWeakCount>
      <stageThreshold>-1.7832831144332886e+00</stageThreshold>
      <weakClassifiers>
        <_>
          <internalNodes>
            0 -1 34 -2.9189509223215282e-04</internalNodes>
          <leafValues>
            -8.6924940347671509e-01 -1.3432836532592773e-01</leafValues></_>
        <_>
          <internalNodes>
            0 -1 69 -1.3703020289540291e-02</internalNodes>
          <leafValues>
            3.2655635476112366e-01 -5.4871493577957153e-01</leafValues></_>
        <_>
          <internalNodes>
            0 -1 15 9.2508329544216394e-05</internalNodes>
          <leafValues>
            2.1337369084358215e-01 -7.7685493230819702e-01</leafValues></_>
        <_>
          <internalNodes>
            0 -1 84 -1.3137966743670404e-04</internalNodes>
          <leafValues>
            -8.5769897699356079e-01 1.5255875885486603e-01</leafValues></_>
        <_>
          <internalNodes>
            0 -1 22 -1.5555785968899727e-02</internalNodes>
          <leafValues>
            4.6899250149726868e-01 -3.4004646539688110e-01</leafValues></_>
        <_>
          <internalNodes>
            0 -1 56 -9.5778181275818497e-05</internalNodes>
          <leafValues>
            4.2655995488166809e-01 -3.9120480418205261e-01</leafValues></_></weakClassifiers></_>
    <!-- stage 9 -->
    <_>
      <maxWeakCount>8</maxWeakCount>
      <stageThreshold>-1.9249424934387207e+00</stageThreshold>
      <weakClassifiers>
        <_>
          <internalNodes>
            0 -1 16 -6.0984712035860866e-05</internalNodes>
          <leafValues>
            -9.0229010581970215e-01 -3.1588131189346313e-01</leafValues></_>
        <_>
          <internalNodes>
            0 -1 74 3.7154950201511383e-02</internalNodes>
          <leafValues>
            -5.7609748840332031e-01 1.8713311851024628e-01</leafValues></_>
        <_>
          <internalNodes>
            0 -1 19 -6.0785645473515615e-05</internalNodes>
          <leafValues>
            -7.7317941188812256e-01 2.6104012131690979e-01</leafValues></_>
        <_>
          <internalNodes>
            0 -1 55 7.7440601307898760e-04</internalNodes>
          <leafValues>
            -5.9123033285140991e-01 2.8268358111381531e-01</leafValues></_>
        <_>
          <internalNodes>
            0 -1 18 2.5248937163269147e-05</internalNodes>
          <leafValues>
            1.8494452536106110e-01 -8.1803435087203979e-01</leafValues></_>
        <_>
          <internalNodes>
            0 -1 52 6.4749328885227442e-06</internalNodes>
          <leafValues>
            -4.2063498497009277e-01 4.4152539968490601e-01</leafValues></_>
        <_>
          <internalNodes>
            0 -1 2 4.6167615801095963e-03</internalNodes>
          <leafValues>
            1.6188958287239075e-01 -9.0245229005813599e-01</leafValues></_>
        <_>
          <internalNodes>
            0 -1 5 -4.0516071021556854e-03</internalNodes>
          <leafValues>
            -6.6486215591430664e-01 2.2842505574226379e-01</leafValues></_></weakClassifiers></_>
    <!-- stage 10 -->
    <_>
      <maxWeakCount>7</maxWeakCount>
      <stageThreshold>-1.4946117401123047e+00</stageThreshold>
      <weakClassifiers>
        <_>
          <internalNodes>
            0 -1 16 -2.5135313626378775e-04</internalNodes>
          <leafValues>
            -9.0252709388732910e-01 -4.0356081724166870e-01</leafValues></_>
        <_>
          <internalNodes>
            0 -1 40 -7.5453822319104802e-06</internalNodes>
          <leafValues>
            1.9803650677204132e-01 -6.2737017869949341e-01</leafValues></_>
        <_>
          <internalNodes>
            0 -1 35 -8.1000989302992821e-04</internalNodes>
          <leafValues>
            -7.4024415016174316e-01 1.9961830973625183e-01</leafValues></_>
        <_>
          <internalNodes>
            0 -1 80 4.1690291836857796e-03</internalNodes>
          <leafValues>
            1.7255356907844543e-01 -8.2645171880722046e-01</leafValues></_>
        <_>
          <internalNodes>
            0 -1 78 2.8647194994846359e-05</internalNodes>
          <leafValues>
            1.1451627314090729e-01 -9.6197515726089478e-01</leafValues></_>
        <_>
          <internalNodes>
            0 -1 51 -1.6894206404685974e-02</internalNodes>
          <leafValues>
            3.1925311684608459e-01 -4.5553752779960632e-01</leafValues></_>
        <_>
          <internalNodes>
            0 -1 0 -2.3181792130344547e-05</internalNodes>
          <leafValues>
            -8.1002694368362427e-01 1.6920664906501770e-01</leafValues></_></weakClassifiers></_>
    <!-- stage 11 -->
    <_>
      <maxWeakCount>9</maxWeakCount>
      <stageThreshold>-1.5839208364486694e+00</stageThreshold>
      <weakClassifiers>
        <_>
          <internalNodes>
            0 -1 31 -2.4418368935585022e-01</internalNodes>
          <leafValues>
            -2.0809248089790344e-01 -7.9365080595016479e-01</leafValues></_>
        <_>
          <internalNodes>
            0 -1 43 -3.4964343067258596e-03</internalNodes>
          <leafValues>
            8.4827125072479248e-02 -8.3045077323913574e-01</leafValues></_>
        <_>
          <internalNodes>
            0 -1 36 1.8706690520048141e-02</internalNodes>
          <leafValues>
            -6.6566663980484009e-01 1.5575827658176422e-01</leafValues></_>
        <_>
          <internalNodes>
            0 -1 67 6.8053111433982849e-02</internalNodes>
          <leafValues>
            -3.6944711208343506e-01 4.5699691772460938e-01</leafValues></_>
        <_>
          <internalNodes>
            0 -1 65 4.2733612644951791e-05</internalNodes>
          <leafValues>
            1.5760618448257446e-01 -9.2541974782943726e-01</leafValues></_>
        <_>
          <internalNodes>
            0 -1 61 -4.6071618271525949e-05</internalNodes>
          <leafValues>
            -9.1416132450103760e-01 1.2505394220352173e-01</leafValues></_>
        <_>
          <internalNodes>
            0 -1 63 1.5747738070785999e-03</internalNodes>
          <leafValues>
            -5.0126367807388306e-01 2.1506617963314056e-01</leafValues></_>
        <_>
          <internalNodes>
            0 -1 7 -6.9648626958951354e-04</internalNodes>
          <leafValues>
            -6.4658188819885254e-01 1.8479998409748077e-01</leafValues></_>
        <_>
          <internalNodes>
            0 -1 32 6.6455372143536806e-04</internalNodes>
          <leafValues>
            -3.0290427803993225e-01 4.6670034527778625e-01</leafValues></_></weakClassifiers></_>
    <!-- stage 12 -->
    <_>
      <maxWeakCount>8</maxWeakCount>
      <stageThreshold>-1.2010734081268311e+00</stageThreshold>
      <weakClassifiers>
        <_>
          <internalNodes>
            0 -1 68 -5.5212460458278656e-02</internalNodes>
          <leafValues>
            2.4793388321995735e-02 -7.0009034872055054e-01</leafValues></_>
        <_>
          <internalNodes>
            0 -1 17 5.9253152357996441e-06</internalNodes>
          <leafValues>
            -1.1546059511601925e-02 -9.6847873926162720e-01</leafValues></_>
        <_>
          <internalNodes>
            0 -1 46 -5.3727169870398939e-05</internalNodes>
          <leafValues>
            3.2838225364685059e-01 -4.0527170896530151e-01</leafValues></_>
        <_>
          <internalNodes>
            0 -1 10 1.8910667300224304e-01</internalNodes>
          <leafValues>
            -4.3345317244529724e-01 2.6154884696006775e-01</leafValues></_>
        <_>
          <internalNodes>
            0 -1 11 8.9481740724295378e-04</internalNodes>
          <leafValues>
            1.5754123032093048e-01 -8.3538234233856201e-01</leafValues></_>
        <_>
          <internalNodes>
            0 -1 57 -7.6991273090243340e-04</internalNodes>
          <leafValues>
            4.4837328791618347e-01 -2.5577121973037720e-01</leafValues></_>
        <_>
          <internalNodes>
            0 -1 13 -1.3096458133077249e-05</internalNodes>
          <leafValues>
            -9.6061336994171143e-01 1.1707895994186401e-01</leafValues></_>
        <_>
          <internalNodes>
            0 -1 76 1.3684942387044430e-03</internalNodes>
          <leafValues>
            -3.6456310749053955e-01 3.3240583539009094e-01</leafValues></_></weakClassifiers></_>
    <!-- stage 13 -->
    <_>
      <maxWeakCount>12</maxWeakCount>
      <stageThreshold>-1.3624914884567261e+00</stageThreshold>
      <weakClassifiers>
        <_>
          <internalNodes>
            0 -1 3 -2.4093244224786758e-02</internalNodes>
          <leafValues>
            -6.2068965286016464e-02 -7.0452445745468140e-01</leafValues></_>
        <_>
          <internalNodes>
            0 -1 4 5.1413939218036830e-05</internalNodes>
          <leafValues>
            1.1989845894277096e-02 -7.5985747575759888e-01</leafValues></_>
        <_>
          <internalNodes>
            0 -1 53 -6.4798150560818613e-05</internalNodes>
          <leafValues>
            2.7259483933448792e-01 -3.9505401253700256e-01</leafValues></_>
        <_>
          <internalNodes>
            0 -1 27 -7.4754075285454746e-06</internalNodes>
          <leafValues>
            -8.3844131231307983e-01 1.6166633367538452e-01</leafValues></_>
        <_>
          <internalNodes>
            0 -1 58 3.0034757219254971e-03</internalNodes>
          <leafValues>
            -3.4152072668075562e-01 3.1104844808578491e-01</leafValues></_>
        <_>
          <internalNodes>
            0 -1 44 7.6555923442356288e-05</internalNodes>
          <leafValues>
            -1.6010765731334686e-01 5.8885651826858521e-01</leafValues></_>
        <_>
          <internalNodes>
            0 -1 30 -8.6768823166494258e-06</internalNodes>
          <leafValues>
            -7.8723257780075073e-01 1.4660780131816864e-01</leafValues></_>
        <_>
          <internalNodes>
            0 -1 75 -1.2153192074038088e-05</internalNodes>
          <leafValues>
            2.7241599559783936e-01 -3.6352878808975220e-01</leafValues></_>
        <_>
          <internalNodes>
            0 -1 85 6.0268039305810817e-06</internalNodes>
          <leafValues>
            1.2229583412408829e-01 -8.0516588687896729e-01</leafValues></_>
        <_>
          <internalNodes>
            0 -1 45 4.7952122986316681e-04</internalNodes>
          <leafValues>
            -2.8605073690414429e-01 3.1796306371688843e-01</leafValues></_>
        <_>
          <internalNodes>
            0 -1 81 1.5346004511229694e-04</internalNodes>
          <leafValues>
            1.6302034258842468e-01 -6.3860410451889038e-01</leafValues></_>
        <_>
          <internalNodes>
            0 -1 70 3.5695940256118774e-02</internalNodes>
          <leafValues>
            -3.2129904627799988e-01 3.2207700610160828e-01</leafValues></_></weakClassifiers></_></stages>
  <features>
    <_>
      <rects>
        <_>
          0 0 1 4 -1.</_>
        <_>
          0 2 1 2 2.</_></rects>
      <tilted>0</tilted></_>
    <_>
      <rects>
        <_>
          0 0 1 14 -1.</_>
        <_>
          0 7 1 7 2.</_></rects>
      <tilted>0</tilted></_>
    <_>
      <rects>
        <_>
          0 0 1 30 -1.</_>
        <_>
          0 15 1 15 2.</_></rects>
      <tilted>0</tilted></_>
    <_>
      <rects>
        <_>
          0 0 6 20 -1.</_>
        <_>
          0 0 3 10 2.</_>
        <_>
          3 10 3 10 2.</_></rects>
      <tilted>0</tilted></_>
    <_>
      <rects>
        <_>
          0 0 32 1 -1.</_>
        <_>
          16 0 16 1 2.</_></rects>
      <tilted>0</tilted></_>
    <_>
      <rects>
        <_>
          0 1 1 30 -1.</_>
        <_>
          0 16 1 15 2.</_></rects>
      <tilted>0</tilted></_>
    <_>
      <rects>
        <_>
          0 4 12 21 -1.</_>
        <_>
          6 4 6 21 2.</_></rects>
      <tilted>0</tilted></_>
    <_>
      <rects>
        <_>
          0 7 1 8 -1.</_>
        <_>
          0 11 1 4 2.</_></rects>
      <tilted>0</tilted></_>
    <_>
      <rects>
        <_>
          0 12 8 10 -1.</_>
        <_>
          4 12 4 10 2.</_></rects>
      <tilted>0</tilted></_>
    <_>
      <rects>
        <_>
          0 12 12 15 -1.</_>
        <_>
          6 12 6 15 2.</_></rects>
      <tilted>0</tilted></_>
    <_>
      <rects>
        <_>
          0 14 28 18 -1.</_>
        <_>
          0 23 28 9 2.</_></rects>
      <tilted>0</tilted></_>
    <_>
      <rects>
        <_>
          0 20 1 9 -1.</_>
        <_>
          0 23 1 3 3.</_></rects>
      <tilted>0</tilted></_>
    <_>
      <rects>
        <_>
          0 29 4 2 -1.</_>
        <_>
          2 29 2 2 2.</_></rects>
      <tilted>0</tilted></_>
    <_>
      <rects>
        <_>
          0 30 1 2 -1.</_>
        <_>
          0 31 1 1 2.</_></rects>
      <tilted>0</tilted></_>
    <_>
      <rects>
        <_>
          0 30 4 1 -1.</_>
        <_>
          2 30 2 1 2.</_></rects>
      <tilted>0</tilted></_>
    <_>
      <rects>
        <_>
          0 30 30 1 -1.</_>
        <_>
          15 30 15 1 2.</_></rects>
      <tilted>0</tilted></_>
    <_>
      <rects>
        <_>
          0 31 18 1 -1.</_>
        <_>
          9 31 9 1 2.</_></rects>
      <tilted>0</tilted></_>
    <_>
      <rects>
        <_>
          1 0 4 2 -1.</_>
        <_>
          1 1 4 1 2.</_></rects>
      <tilted>0</tilted></_>
    <_>
      <rects>
        <_>
          1 0 12 2 -1.</_>
        <_>
          7 0 6 2 2.</_></rects>
      <tilted>0</tilted></_>
    <_>
      <rects>
        <_>
          1 0 14 1 -1.</_>
        <_>
          8 0 7 1 2.</_></rects>
      <tilted>0</tilted></_>
    <_>
      <rects>
        <_>
          1 0 16 1 -1.</_>
        <_>
          9 0 8 1 2.</_></rects>
      <tilted>0</tilted></_>
    <_>
      <rects>
        <_>
          1 0 31 18 -1.</_>
        <_>
          1 9 31 9 2.</_></rects>
      <tilted>0</tilted></_>
    <_>
      <rects>
        <_>
          1 5 10 8 -1.</_>
        <_>
          6 5 5 8 2.</_></rects>
      <tilted>0</tilted></_>
    <_>
      <rects>
        <_>
          2 0 30 1 -1.</_>
        <_>
          12 0 10 1 3.</_></rects>
      <tilted>0</tilted></_>
    <_>
      <rects>
        <_>
          2 18 15 14 -1.</_>
        <_>
          2 25 15 7 2.</_></rects>
      <tilted>0</tilted></_>
    <_>
      <rects>
        <_>
          2 20 22 9 -1.</_>
        <_>
          13 20 11 9 2.</_></rects>
      <tilted>0</tilted></_>
    <_>
      <rects>
        <_>
          3 0 24 1 -1.</_>
        <_>
          15 0 12 1 2.</_></rects>
      <tilted>0</tilted></_>
    <_>
      <rects>
        <_>
          3 0 28 1 -1.</_>
        <_>
          17 0 14 1 2.</_></rects>
      <tilted>0</tilted></_>
    <_>
      <rects>
        <_>
          3 0 28 30 -1.</_>
        <_>
          3 10 28 10 3.</_></rects>
      <tilted>0</tilted></_>
    <_>
      <rects>
        <_>
          3 2 25 30 -1.</_>
        <_>
          3 12 25 10 3.</_></rects>
      <tilted>0</tilted></_>
    <_>
      <rects>
        <_>
          3 30 12 2 -1.</_>
        <_>
          3 30 6 1 2.</_>
        <_>
          9 31 6 1 2.</_></rects>
      <tilted>0</tilted></_>
    <_>
      <rects>
        <_>
          4 0 22 20 -1.</_>
        <_>
          4 10 22 10 2.</_></rects>
      <tilted>0</tilted></_>
    <_>
      <rects>
        <_>
          4 16 10 3 -1.</_>
        <_>
          9 16 5 3 2.</_></rects>
      <tilted>0</tilted></_>
    <_>
      <rects>
        <_>
          4 18 23 14 -1.</_>
        <_>
          4 25 23 7 2.</_></rects>
      <tilted>0</tilted></_>
    <_>
      <rects>
        <_>
          4 29 27 1 -1.</_>
        <_>
          13 29 9 1 3.</_></rects>
      <tilted>0</tilted></_>
    <_>
      <rects>
        <_>
          4 30 24 1 -1.</_>
        <_>
          16 30 12 1 2.</_></rects>
      <tilted>0</tilted></_>
    <_>
      <rects>
        <_>
          5 18 7 14 -1.</_>
        <_>
          5 25 7 7 2.</_></rects>
      <tilted>0</tilted></_>
    <_>
      <rects>
        <_>
          5 22 9 10 -1.</_>
        <_>
          5 27 9 5 2.</_></rects>
      <tilted>0</tilted></_>
    <_>
      <rects>
        <_>
          5 22 22 10 -1.</_>
        <_>
          5 27 22 5 2.</_></rects>
      <tilted>0</tilted></_>
    <_>
      <rects>
        <_>
          5 31 26 1 -1.</_>
        <_>
          18 31 13 1 2.</_></rects>
      <tilted>0</tilted></_>
    <_>
      <rects>
        <_>
          6 20 2 10 -1.</_>
        <_>
          7 20 1 10 2.</_></rects>
      <tilted>0</tilted></_>
    <_>
      <rects>
        <_>
          6 31 24 1 -1.</_>
        <_>
          18 31 12 1 2.</_></rects>
      <tilted>0</tilted></_>
    <_>
      <rects>
        <_>
          7 0 17 14 -1.</_>
        <_>
          7 7 17 7 2.</_></rects>
      <tilted>0</tilted></_>
    <_>
      <rects>
        <_>
          7 0 23 10 -1.</_>
        <_>
          7 5 23 5 2.</_></rects>
      <tilted>0</tilted></_>
    <_>
      <rects>
        <_>
          7 7 15 4 -1.</_>
        <_>
          7 9 15 2 2.</_></rects>
      <tilted>0</tilted></_>
    <_>
      <rects>
        <_>
          7 12 6 5 -1.</_>
        <_>
          10 12 3 5 2.</_></rects>
      <tilted>0</tilted></_>
    <_>
      <rects>
        <_>
          7 21 2 11 -1.</_>
        <_>
          8 21 1 11 2.</_></rects>
      <tilted>0</tilted></_>
    <_>
      <rects>
        <_>
          8 18 16 14 -1.</_>
        <_>
          8 25 16 7 2.</_></rects>
      <tilted>0</tilted></_>
    <_>
      <rects>
        <_>
          8 20 13 12 -1.</_>
        <_>
          8 24 13 4 3.</_></rects>
      <tilted>0</tilted></_>
    <_>
      <rects>
        <_>
          9 0 16 1 -1.</_>
        <_>
          17 0 8 1 2.</_></rects>
      <tilted>0</tilted></_>
    <_>
      <rects>
        <_>
          9 0 18 1 -1.</_>
        <_>
          18 0 9 1 2.</_></rects>
      <tilted>0</tilted></_>
    <_>
      <rects>
        <_>
          9 0 10 10 -1.</_>
        <_>
          9 5 10 5 2.</_></rects>
      <tilted>0</tilted></_>
    <_>
      <rects>
        <_>
          9 12 2 9 -1.</_>
        <_>
          10 12 1 9 2.</_></rects>
      <tilted>0</tilted></_>
    <_>
      <rects>
        <_>
          10 22 2 10 -1.</_>
        <_>
          11 22 1 10 2.</_></rects>
      <tilted>0</tilted></_>
    <_>
      <rects>
        <_>
          11 0 14 28 -1.</_>
        <_>
          11 14 14 14 2.</_></rects>
      <tilted>0</tilted></_>
    <_>
      <rects>
        <_>
          11 22 1 10 -1.</_>
        <_>
          11 27 1 5 2.</_></rects>
      <tilted>0</tilted></_>
    <_>
      <rects>
        <_>
          12 14 1 12 -1.</_>
        <_>
          12 20 1 6 2.</_></rects>
      <tilted>0</tilted></_>
    <_>
      <rects>
        <_>
          13 14 16 1 -1.</_>
        <_>
          21 14 8 1 2.</_></rects>
      <tilted>0</tilted></_>
    <_>
      <rects>
        <_>
          18 5 14 6 -1.</_>
        <_>
          18 5 7 3 2.</_>
        <_>
          25 8 7 3 2.</_></rects>
      <tilted>0</tilted></_>
    <_>
      <rects>
        <_>
          18 20 5 12 -1.</_>
        <_>
          18 26 5 6 2.</_></rects>
      <tilted>0</tilted></_>
    <_>
      <rects>
        <_>
          18 31 14 1 -1.</_>
        <_>
          25 31 7 1 2.</_></rects>
      <tilted>0</tilted></_>
    <_>
      <rects>
        <_>
          19 0 10 2 -1.</_>
        <_>
          24 0 5 2 2.</_></rects>
      <tilted>0</tilted></_>
    <_>
      <rects>
        <_>
          19 0 12 1 -1.</_>
        <_>
          25 0 6 1 2.</_></rects>
      <tilted>0</tilted></_>
    <_>
      <rects>
        <_>
          19 24 4 8 -1.</_>
        <_>
          19 28 4 4 2.</_></rects>
      <tilted>0</tilted></_>
    <_>
      <rects>
        <_>
          20 0 6 2 -1.</_>
        <_>
          23 0 3 2 2.</_></rects>
      <tilted>0</tilted></_>
    <_>
      <rects>
        <_>
          20 1 12 1 -1.</_>
        <_>
          24 1 4 1 3.</_></rects>
      <tilted>0</tilted></_>
    <_>
      <rects>
        <_>
          20 10 12 21 -1.</_>
        <_>
          26 10 6 21 2.</_></rects>
      <tilted>0</tilted></_>
    <_>
      <rects>
        <_>
          20 11 12 20 -1.</_>
        <_>
          26 11 6 20 2.</_></rects>
      <tilted>0</tilted></_>
    <_>
      <rects>
        <_>
          20 13 12 18 -1.</_>
        <_>
          20 13 6 9 2.</_>
        <_>
          26 22 6 9 2.</_></rects>
      <tilted>0</tilted></_>
    <_>
      <rects>
        <_>
          20 20 12 12 -1.</_>
        <_>
          20 20 6 6 2.</_>
        <_>
          26 26 6 6 2.</_></rects>
      <tilted>0</tilted></_>
    <_>
      <rects>
        <_>
          21 20 5 12 -1.</_>
        <_>
          21 26 5 6 2.</_></rects>
      <tilted>0</tilted></_>
    <_>
      <rects>
        <_>
          21 28 8 4 -1.</_>
        <_>
          25 28 4 4 2.</_></rects>
      <tilted>0</tilted></_>
    <_>
      <rects>
        <_>
          22 8 10 7 -1.</_>
        <_>
          27 8 5 7 2.</_></rects>
      <tilted>0</tilted></_>
    <_>
      <rects>
        <_>
          22 9 10 16 -1.</_>
        <_>
          27 9 5 16 2.</_></rects>
      <tilted>0</tilted></_>
    <_>
      <rects>
        <_>
          22 11 10 17 -1.</_>
        <_>
          27 11 5 17 2.</_></rects>
      <tilted>0</tilted></_>
    <_>
      <rects>
        <_>
          23 13 2 2 -1.</_>
        <_>
          23 14 2 1 2.</_></rects>
      <tilted>0</tilted></_>
    <_>
      <rects>
        <_>
          24 22 8 1 -1.</_>
        <_>
          28 22 4 1 2.</_></rects>
      <tilted>0</tilted></_>
    <_>
      <rects>
        <_>
          26 27 3 4 -1.</_>
        <_>
          26 29 3 2 2.</_></rects>
      <tilted>0</tilted></_>
    <_>
      <rects>
        <_>
          30 28 2 4 -1.</_>
        <_>
          30 28 1 2 2.</_>
        <_>
          31 30 1 2 2.</_></rects>
      <tilted>0</tilted></_>
    <_>
      <rects>
        <_>
          31 0 1 28 -1.</_>
        <_>
          31 14 1 14 2.</_></rects>
      <tilted>0</tilted></_>
    <_>
      <rects>
        <_>
          31 0 1 32 -1.</_>
        <_>
          31 16 1 16 2.</_></rects>
      <tilted>0</tilted></_>
    <_>
      <rects>
        <_>
          31 2 1 12 -1.</_>
        <_>
          31 6 1 4 3.</_></rects>
      <tilted>0</tilted></_>
    <_>
      <rects>
        <_>
          31 4 1 28 -1.</_>
        <_>
          31 18 1 14 2.</_></rects>
      <tilted>0</tilted></_>
    <_>
      <rects>
        <_>
          31 7 1 8 -1.</_>
        <_>
          31 11 1 4 2.</_></rects>
      <tilted>0</tilted></_>
    <_>
      <rects>
        <_>
          31 14 1 18 -1.</_>
        <_>
          31 23 1 9 2.</_></rects>
      <tilted>0</tilted></_>
    <_>
      <rects>
        <_>
          31 28 1 3 -1.</_>
        <_>
          31 29 1 1 3.</_></rects>
      <tilted>0</tilted></_></features></cascade>
</opencv_storage>
