<?xml version="1.0"?>
<opencv_storage>
<stage10>
  <maxWeakCount>5</maxWeakCount>
  <stageThreshold>-1.6683281660079956e+00</stageThreshold>
  <weakClassifiers>
    <_>
      <internalNodes>
        0 -1 66441 -2.2506582736968994e-01</internalNodes>
      <leafValues>
        5.0000000000000000e-01 -8.8647115230560303e-01</leafValues></_>
    <_>
      <internalNodes>
        0 -1 17955 -1.5593819320201874e-02</internalNodes>
      <leafValues>
        8.8333815336227417e-02 -6.6378879547119141e-01</leafValues></_>
    <_>
      <internalNodes>
        0 -1 509816 1.0994257900165394e-04</internalNodes>
      <leafValues>
        1.0222438722848892e-01 -1.</leafValues></_>
    <_>
      <internalNodes>
        0 -1 226229 -2.5523211807012558e-02</internalNodes>
      <leafValues>
        6.1198717355728149e-01 -2.9831153154373169e-01</leafValues></_>
    <_>
      <internalNodes>
        0 -1 12186 -1.1717396555468440e-03</internalNodes>
      <leafValues>
        -8.3227968215942383e-01 2.2945277392864227e-01</leafValues></_></weakClassifiers></stage10>
</opencv_storage>
