<?xml version="1.0"?>
<opencv_storage>
<stage9>
  <maxWeakCount>5</maxWeakCount>
  <stageThreshold>-1.6718701124191284e+00</stageThreshold>
  <weakClassifiers>
    <_>
      <internalNodes>
        0 -1 3699 -2.4460762739181519e-01</internalNodes>
      <leafValues>
        4.2857143282890320e-01 -8.8815164566040039e-01</leafValues></_>
    <_>
      <internalNodes>
        0 -1 18099 -5.4180949926376343e-02</internalNodes>
      <leafValues>
        2.4991156160831451e-01 -6.8131113052368164e-01</leafValues></_>
    <_>
      <internalNodes>
        0 -1 61367 -9.6338162620668299e-06</internalNodes>
      <leafValues>
        -1. 1.1216639727354050e-01</leafValues></_>
    <_>
      <internalNodes>
        0 -1 482710 1.2292310129851103e-03</internalNodes>
      <leafValues>
        -6.6975992918014526e-01 2.4725621938705444e-01</leafValues></_>
    <_>
      <internalNodes>
        0 -1 23781 2.9815516900271177e-03</internalNodes>
      <leafValues>
        -4.3582260608673096e-01 4.5518624782562256e-01</leafValues></_></weakClassifiers></stage9>
</opencv_storage>
