<?xml version="1.0"?>
<opencv_storage>
<stage8>
  <maxWeakCount>5</maxWeakCount>
  <stageThreshold>-1.8307524919509888e+00</stageThreshold>
  <weakClassifiers>
    <_>
      <internalNodes>
        0 -1 362446 1.0768131911754608e-01</internalNodes>
      <leafValues>
        -9.4808125495910645e-01 -4.9726775288581848e-01</leafValues></_>
    <_>
      <internalNodes>
        0 -1 393717 5.7595886290073395e-02</internalNodes>
      <leafValues>
        -8.5275769233703613e-01 -9.8182141780853271e-02</leafValues></_>
    <_>
      <internalNodes>
        0 -1 31295 -2.8145255055278540e-04</internalNodes>
      <leafValues>
        -1. 1.1513348668813705e-01</leafValues></_>
    <_>
      <internalNodes>
        0 -1 357850 2.2438674932345748e-05</internalNodes>
      <leafValues>
        -5.8396190404891968e-01 4.1049814224243164e-01</leafValues></_>
    <_>
      <internalNodes>
        0 -1 285511 3.6820245441049337e-05</internalNodes>
      <leafValues>
        -5.1318067312240601e-01 4.3891492486000061e-01</leafValues></_></weakClassifiers></stage8>
</opencv_storage>
