<?xml version="1.0"?>
<opencv_storage>
<stage7>
  <maxWeakCount>5</maxWeakCount>
  <stageThreshold>-1.9797227382659912e+00</stageThreshold>
  <weakClassifiers>
    <_>
      <internalNodes>
        0 -1 287901 1.2084284424781799e-01</internalNodes>
      <leafValues>
        -9.1295748949050903e-01 -1.3793103396892548e-01</leafValues></_>
    <_>
      <internalNodes>
        0 -1 444995 5.3273327648639679e-02</internalNodes>
      <leafValues>
        -7.5311195850372314e-01 1.4825668931007385e-01</leafValues></_>
    <_>
      <internalNodes>
        0 -1 90954 5.2417002734728158e-05</internalNodes>
      <leafValues>
        1.5671387314796448e-01 -8.9300769567489624e-01</leafValues></_>
    <_>
      <internalNodes>
        0 -1 435969 1.7691783607006073e-02</internalNodes>
      <leafValues>
        -7.3236733675003052e-01 2.4754993617534637e-01</leafValues></_>
    <_>
      <internalNodes>
        0 -1 30919 1.0253399523207918e-05</internalNodes>
      <leafValues>
        2.6200011372566223e-01 -9.1436564922332764e-01</leafValues></_></weakClassifiers></stage7>
</opencv_storage>
