<?xml version="1.0"?>
<opencv_storage>
<stage5>
  <maxWeakCount>7</maxWeakCount>
  <stageThreshold>-2.2112996578216553e+00</stageThreshold>
  <weakClassifiers>
    <_>
      <internalNodes>
        0 -1 365289 2.1406039595603943e-02</internalNodes>
      <leafValues>
        -8.8532555103302002e-01 1.9678269430611905e-17</leafValues></_>
    <_>
      <internalNodes>
        0 -1 438076 -1.6663886606693268e-02</internalNodes>
      <leafValues>
        2.9885914176702499e-02 -7.8208315372467041e-01</leafValues></_>
    <_>
      <internalNodes>
        0 -1 411643 2.7657279861159623e-04</internalNodes>
      <leafValues>
        1.1167664825916290e-01 -9.2329150438308716e-01</leafValues></_>
    <_>
      <internalNodes>
        0 -1 491688 2.4084874894469976e-05</internalNodes>
      <leafValues>
        2.4833150207996368e-01 -7.2895818948745728e-01</leafValues></_>
    <_>
      <internalNodes>
        0 -1 90987 4.9230974400416017e-04</internalNodes>
      <leafValues>
        2.4639846384525299e-01 -6.6693162918090820e-01</leafValues></_>
    <_>
      <internalNodes>
        0 -1 94272 -1.6020594164729118e-02</internalNodes>
      <leafValues>
        5.8670836687088013e-01 -3.2410329580307007e-01</leafValues></_>
    <_>
      <internalNodes>
        0 -1 509791 -2.0321767806308344e-05</internalNodes>
      <leafValues>
        -9.0076595544815063e-01 2.5245648622512817e-01</leafValues></_></weakClassifiers></stage5>
</opencv_storage>
