<?xml version="1.0"?>
<opencv_storage>
<stage3>
  <maxWeakCount>5</maxWeakCount>
  <stageThreshold>-1.7037924528121948e+00</stageThreshold>
  <weakClassifiers>
    <_>
      <internalNodes>
        0 -1 222092 -1.5421999618411064e-02</internalNodes>
      <leafValues>
        4.5454546809196472e-01 -8.7689393758773804e-01</leafValues></_>
    <_>
      <internalNodes>
        0 -1 396690 9.7593376412987709e-03</internalNodes>
      <leafValues>
        -6.5073817968368530e-01 4.6250522136688232e-01</leafValues></_>
    <_>
      <internalNodes>
        0 -1 509814 4.0779377741273493e-05</internalNodes>
      <leafValues>
        2.6414039731025696e-01 -7.5236129760742188e-01</leafValues></_>
    <_>
      <internalNodes>
        0 -1 510046 1.2621629866771400e-04</internalNodes>
      <leafValues>
        1.8076266348361969e-01 -9.3035250902175903e-01</leafValues></_>
    <_>
      <internalNodes>
        0 -1 121235 -1.5809644013643265e-02</internalNodes>
      <leafValues>
        3.9543834328651428e-01 -5.5509430170059204e-01</leafValues></_></weakClassifiers></stage3>
</opencv_storage>
